triangle circle square trash
64 8 4
0.2278026171563474 0.3057085623266201 -0.2463282965347589 -0.3052585710724362 -0.05121566329089737 -0.3082653329998504 -0.04591371657788617 0.1261365859360361 0.04488864859506629 0.10200845203099836 -0.3189609748232348 -0.14259958345460946 -0.0432107072738986 0.0202062366072634 0.006962813658621836 -0.060783405392986684 -0.200502783534965 -0.08568858536541325 -0.4672350331477722 0.3997784344842967 -0.21618066409990894 -0.17202218449075735 -0.15407392227649333 -0.3081666215460553 -0.1671173293043109 0.07900070994278686 0.061273551525935346 0.5886803536421732 0.48152705601744056 -0.08728539266934661 -0.0051857262789620825 0.035185997832317864 0.10182248580957617 -0.04164487327136399 0.09377083473832888 0.49879568705560406 0.474127061171405 0.3786133939428118 -0.0731158192850709 0.12041750686092764 -0.0641131358682554 0.0198551090069944 -0.2778958485889642 0.3995411880438392 0.16021936774579917 -0.36350210902564617 -0.2245886270423701 -0.09653283361477837 0.5062870058154342 0.22070121817948196 0.11087415383074778 -0.01497363838287821 -0.25201881719321784 -0.11806063797268085 0.45743465559688384 0.3735900409648213 -0.030321385263408603 -0.10073473613388326 -0.25424305084115406 -0.22225950486104493 -0.4545486856601932 -0.1448319411349004 0.10965657730240862 0.17875786209597155
0.14965659553198873 0.2882897850919906 -0.5082467407676287 -0.5637608600189566 -0.4426263733233235 -0.7983161008179553 -0.5454619565285707 -0.024793268428061586 -0.3018819455232653 0.041173331970826135 -0.5556031300663593 -0.3052273504169184 -0.5070822447472064 -0.3274812243627755 -0.1456663227783822 -0.28517468134312024 -0.3654781248887092 -0.18090948833853798 0.06814049174753099 0.8938278387860025 0.2619066183097757 -0.5207144632931006 0.07678372033901221 -0.48573839545829245 -0.10645773932120826 0.016474899062959132 0.562415964424555 1.0694971590072468 0.929381061220979 -0.279385478295491 -0.18147650712463145 0.13747765725049907 0.204821647889824 -0.009007487505521562 0.7172337739475274 1.177965572456223 1.059187708983527 0.1299016195543841 -0.165877782458673 0.08980117177836705 -0.03755529540920219 -0.22080579907291242 -0.15921989984813095 0.5361335321008324 0.13197393498882107 -0.1767856258931714 -0.3630892847485161 0.11963642209575379 0.38175438761748587 0.06491772776361869 -0.09880682670751707 -0.0004921744334928816 -0.1532389358260968 -0.3850573107832239 0.6992197362942979 0.4238634024519159 0.02667843587867794 -0.02968765775351656 -0.32520801652356074 -0.1762328437272483 -0.29483887654405844 0.009975192339184178 -0.020030913113555524 0.3187498099234829
0.11550886137598147 -0.11614358338624436 0.4243644626275826 0.17463309332141652 0.37224680269955324 0.543635020161062 0.24330673405531447 0.13567782548364657 0.3344724057765811 0.10395261062646675 0.29907625357412737 0.18131555666611254 0.35306187508049147 0.48711701477965624 0.20063642208452154 0.20370732879667605 0.16853025451086354 0.1939981458880497 -0.20156937061811075 -0.29896018089494697 -0.1940552475538976 0.27534646042228295 0.28638344299072366 0.1761195856827091 0.23396527066627903 -0.15423610870962354 -0.2704937472097365 -0.591956632916196 -0.2625150088172188 0.32226665959871026 0.12328683986656144 -0.10747931059415643 0.1088568578033215 0.08260394305409333 -0.264922729958487 -0.5008707679277348 -0.3338565536379694 0.4522812668018498 0.28458366172400457 0.030699901966627908 0.11636658760758 0.2972152672848906 0.05029686376945321 -0.2524548771446397 -0.12727095378765058 -0.0024865578775456216 0.21404740635299602 -0.05238161579288773 0.09606867304127464 0.26290852309071805 0.2040603979268257 0.008425708050119995 0.27237650967611826 0.207985173987894 0.06033704453532995 0.09492002969923316 0.12093063752113682 -0.03615956714476359 0.19232669631849372 -0.047241939478320664 0.19645180501359408 0.07818355355156671 0.10186603364613968 -0.13222271642152003
-0.3785734886372962 -0.47995440694989566 -0.3122661909421339 -0.1897466803798621 -0.09264046199437138 -0.4339575045965244 -0.4733783003021268 -0.42547004641336766 -0.8355357936728202 -0.4587081816701836 -0.15322066794792194 -0.043986014662204455 -0.344722231727064 -0.346581601763367 -0.6891677938227779 0.05263372978849162 -0.0847799016020212 0.12027191199064587 1.172421866413115 0.6100776461944786 0.5621682819419442 0.05972524834368095 0.21057028856395268 0.16784400893364615 0.07849467047130239 -0.23643119340779198 0.3550213256930162 0.4567500302060551 0.45517012283961567 -0.34547164903337796 -0.06503762107903278 0.35152251009001206 0.2637497269213402 -0.3010684539112258 0.7230871639739763 0.3845999582765977 0.33674900646396755 -0.42014722169593266 0.45815620308416083 0.24635621901437693 0.17926389513511323 -0.1715234258718972 0.37784382138230543 0.06081962216316423 -0.003555088988242069 0.5605416545569628 0.2961057662205937 0.1648105151545097 -0.2700161286436134 -0.21804471001369966 0.18360780275704372 0.23951802920457574 0.1866567906946786 0.03543686404434525 -0.1641277548733787 -0.2744040463950585 -0.11021228201388336 0.0018870452795312926 0.38305496441820847 0.38116573027533135 0.3056002119607173 0.09023737822048918 -0.08363902170805956 -0.12808982938431956
-0.4029028151035758 -0.7482766653385318 0.12049040983698728 0.05523325206545947 0.08058917710122368 0.05423853340113008 -0.1727873562018527 -0.11072058365447467 -0.628088351633272 -0.5784630686230923 0.33930553124058815 0.08865600295054929 -0.15321938321709028 -0.038935314479029814 -0.3728230752187431 0.012764340632880738 0.24160775557802375 0.13972552349377873 0.9633691211546264 -0.06458348840815273 0.43595677977589536 0.23238847530895904 0.18172218793423947 0.36948486499990013 0.028853620499200427 -0.27714190024240176 -0.07590575392182507 -0.465752930453847 -0.4104191697697284 -0.12305328563495706 0.04089278886679404 0.1301156811662571 -0.06804460159913803 -0.11055408062344804 0.25870847160274896 -0.42518161264140963 -0.23599458882026578 -0.34981247792886044 0.4948098095132821 0.3787014362433319 0.2190656949253088 -0.03804342470121749 0.23464036010236972 -0.4027151092869038 -0.12742218213945056 0.48537405943901374 0.4589715627650161 0.010178100954937314 -0.4321071018057032 -0.4044657161069688 0.09669015595415534 -0.11457624981900781 0.12496725451772214 0.3295765266042522 -0.5294801103226372 -0.21794483374046056 -0.2553183227990593 0.01584468639555931 0.39264320445530015 0.29160873695728445 0.4583488019747949 -0.0607148919390352 -0.10641061319075514 -0.2800477594966893
-0.0662871914276285 -0.07655141098009123 -0.2401552584860422 -0.08874975613507272 -0.22474882499382473 -0.3994868395282177 -0.40238833034949834 -0.16844630067921057 -0.6197405746130266 0.15157416899890622 -0.1736521276680863 0.3762067863383203 -0.3344182975005693 -0.4995739199101558 -0.21132764655436923 0.1627970009892253 0.21691379325769833 -0.053321560289264935 1.3637615762624187 0.3415624251568609 0.47423435877705666 0.10327244329896157 0.005726289574809238 0.26203774478927755 -0.04050262223064088 0.14035551143609834 0.44669485814295457 0.6567224202637261 0.2990531035283063 -0.07276600306452269 0.10531896741765784 0.07289617993791007 -0.2325725176374051 -0.44451821808896647 0.09803237799071723 0.20745203870853818 0.23708188743452177 -1.2326376547543205 -0.398145439771457 -0.44229738750314757 -0.23000364780909624 -0.26555458412624683 0.2834178516364021 0.27630241131138567 -0.10158027227499707 0.6491867570163001 0.087430814775151 -0.18616755668358553 -0.6619197657929355 -0.4248122524290894 0.1848292299195087 0.44531594824662435 0.2205231352278371 0.10260057432049173 -0.27938105867059326 -0.7119259846563982 0.0892591998274385 0.005873722905898674 0.5584125616189278 0.7392513566343848 0.4392041421296921 0.3465221536056884 0.020073921341161722 0.24351387215675252
0.7171199902375535 0.6418934353737803 0.43288748726129694 0.3204626365691093 0.08996921880029676 0.41620886769233756 0.4146391484733926 0.3985796305509356 0.7061568968499516 0.9878025241986442 -0.0672071005985732 0.49137092338208044 0.4136655892836893 0.12722159815553105 0.5667533548465439 0.19529314430363245 0.38091958961357747 -0.002771731704623116 -0.52871292282979 -0.5251068243455205 -0.4387737865654582 0.06771355880242373 -0.19241380449442771 0.09112340706116046 -0.07980828214707038 0.4676019778132733 -0.10813878200747144 0.2854000471990321 -0.31212305582676336 0.6096106375099599 0.4221708475650824 -0.2793369366264435 -0.6669191155772122 0.09745170142322303 -1.0882494691744593 -0.3613177494307869 -0.42088953307473165 -0.6081630768506889 -0.6791609099711616 -0.8325610782849152 -0.46402557758700524 -0.11762689776830274 -0.2845918046693924 0.14411818661469633 -0.17829632424068872 0.14953306591588797 -0.3574677249657776 -0.5207208004889644 -0.36513830499279065 0.05436159031558507 -0.1671758661297233 0.21265300128911327 -0.00505837640747384 -0.13340034121800995 -0.30168870863023894 -0.6706063556983002 0.3497005674803396 0.23019596146965512 0.05069711674235543 0.4367478618191814 0.11829974688376983 0.09503154896748789 0.08937614422015534 0.545136045239813
-0.6098510873888919 -0.7242154686775376 -0.2856480381105015 -0.027568717560625296 0.203166391633163 -0.038535418013714164 -0.1750063324744759 -0.45177559213874235 -0.5435198657567066 -0.6256540228347681 0.4684839572379164 -0.3186035407046133 -0.025796958444098506 0.4170411028867459 -0.3548465828522727 -0.21977402363399318 -0.3119800774429483 0.21565278219616932 0.02362897835802985 0.016216114685904864 0.09845594093608304 0.3273467351435813 0.3405034797573963 -0.1703625992670101 -0.007821713225082537 -0.440519262523242 -0.3006008128192243 -0.7788386498452081 -0.29574460903188066 -0.18426698220790838 -0.038600762144098404 0.11182928995905912 0.43467016510255324 0.1854454781466339 0.5988824103024629 -0.06727269131032304 -0.2322257528098267 0.9700178246077457 0.9568779749913802 0.7469859510220775 0.48309920009858487 0.43319558617927817 0.29508541052116305 -0.3098468982305904 -0.14828987089000875 0.0031154820828808417 0.5480794323286284 0.10148152451628813 0.13836539846653442 0.1781303414951348 0.20727529204190542 -0.01599432679398097 0.2856729950855837 0.45795507323273704 0.0652712622439563 0.40122690014990386 -0.4361210720580991 -0.43083683938039447 -0.025863790100708196 -0.5247948999318154 -0.07631644763463302 -0.32645921196989713 -0.2876898013211151 -0.7210151906166677
0.8128901985697344 1.1371788869212724 -0.6326756531346481 -0.0032804509933679897 -1.0956550972376071 0.10253492959767248 0.8098594306594209 -1.0058851316050086
1.3613003524243439 2.2116405714924454 -0.8202457933458107 0.9537510041266906 -0.30348611620955873 -0.9534361444022744 -3.952283062424354 2.0917135371133533
-2.1038315086923642 -2.7728578733055933 0.24722200655307314 1.3915965790414162 2.9333293193900336 1.0112368521713502 -0.1893299707818753 1.4334210808692662
0.3271205361194093 -1.7650451250674697 1.827027196770416 -2.6189481939966073 -1.0033254538340746 -2.284159210158746 2.881851832289021 -0.19577233984686557
1.0429741995864568 2.482031052987964 -1.7454043351008743 0.5751113773415172 -1.0754443625437367 2.1980059190473256 1.505591560048341 -3.2725659763410584
-0.005452519250987355 -0.8240576152513 0.954479711080659 -0.12496957657837032
